0.52 -0.06 -0.10 -0.14 -0.28 0.04 0.17 -0.08 -0.02 0.34 0.32 -0.05 0.11 -0.01 -0.22 -0.30 -0.05 0.27 -0.19 0.21 0.16 -0.04 0.54 -0.05 0.26 0.35 -0.30 0.31 -0.19 -0.02 -0.06 -0.23
0.39 -0.11 -0.14 0.41 0.07 0.21 0.17 0.12 0.29 0.36 -0.03 -0.05 -0.00 0.12 0.03 -0.23 0.12 -0.03 0.15 -0.08 -0.16 0.28 -0.09 0.11 -0.18 0.11 -0.51 -0.68 -0.22 -0.06 0.23 -0.21
0.22 0.02 -0.24 0.20 -0.13 0.30 -0.02 0.16 0.19 0.27 -0.04 -0.24 0.01 -0.08 -0.18 -0.30 -0.01 -0.09 -0.03 -0.06 -0.36 0.29 -0.16 -0.04 -0.03 -0.01 -0.39 -0.61 -0.23 0.25 0.09 -0.26
0.56 0.13 0.03 -0.17 -0.45 -0.15 0.24 0.13 0.11 0.52 0.40 0.04 0.23 -0.21 -0.08 -0.47 -0.11 0.28 -0.09 0.07 0.03 0.03 0.52 0.02 0.28 0.20 -0.12 0.28 -0.22 -0.09 -0.17 -0.41
0.15 0.01 -0.21 0.22 -0.14 0.20 0.18 0.22 0.21 0.47 -0.21 -0.25 -0.21 -0.03 -0.09 -0.32 0.23 -0.17 0.23 -0.08 -0.13 0.23 -0.00 0.15 -0.31 0.08 -0.51 -0.41 -0.29 -0.01 0.20 -0.13
0.29 0.03 -0.01 0.29 -0.01 0.27 0.01 0.21 0.28 0.20 -0.28 -0.02 -0.04 -0.00 -0.19 -0.37 0.01 -0.18 0.18 0.03 -0.35 0.42 -0.23 0.28 -0.21 0.10 -0.38 -0.71 -0.39 -0.06 0.18 -0.14
0.05 0.05 -0.29 0.41 0.02 0.41 0.22 0.33 0.20 0.34 -0.03 -0.01 -0.12 -0.05 -0.23 -0.32 0.24 -0.28 -0.01 0.04 -0.10 0.19 0.01 0.09 -0.18 0.20 -0.51 -0.58 -0.35 0.13 0.15 -0.26
0.57 0.17 0.06 -0.37 -0.35 -0.22 0.23 0.09 -0.10 0.46 0.40 -0.18 0.15 -0.10 -0.10 -0.45 -0.27 0.16 -0.32 0.23 0.20 0.08 0.45 0.04 0.01 0.42 -0.05 0.08 -0.19 -0.08 -0.00 -0.35
0.54 0.06 -0.04 -0.27 -0.48 -0.16 0.21 -0.08 0.14 0.33 0.16 -0.00 0.05 -0.14 0.09 -0.54 -0.15 0.28 -0.39 0.31 0.12 0.19 0.23 0.07 0.22 0.28 -0.12 0.18 -0.23 -0.22 -0.03 -0.45
-0.46 -0.13 -0.09 0.23 0.39 0.18 -0.20 0.20 -0.14 -0.47 -0.18 0.01 -0.23 0.12 0.04 0.55 0.25 -0.31 0.18 -0.17 -0.03 -0.20 -0.43 -0.09 -0.27 -0.20 0.18 -0.07 0.28 0.27 0.24 0.34
-0.18 -0.12 -0.07 -0.15 0.18 -0.34 -0.13 -0.21 -0.40 -0.31 0.29 0.04 0.06 0.14 0.19 0.14 0.11 0.19 -0.20 0.17 0.31 -0.39 0.31 -0.06 0.09 0.10 0.42 0.67 0.24 0.14 -0.01 0.23
0.01 0.01 -0.12 0.28 0.09 0.32 -0.05 -0.07 0.08 0.34 -0.17 -0.11 0.12 0.02 -0.17 -0.27 0.15 -0.12 0.06 0.00 -0.01 0.33 -0.27 0.18 -0.18 0.16 -0.52 -0.61 -0.25 0.08 -0.13 -0.03
0.13 0.11 -0.15 0.25 -0.07 0.23 -0.03 0.13 0.17 0.37 -0.10 -0.09 -0.18 -0.01 -0.22 -0.33 0.08 0.03 0.12 -0.21 -0.09 0.36 -0.25 0.22 -0.14 0.04 -0.28 -0.70 -0.31 -0.06 0.09 -0.11
-0.14 0.21 -0.01 -0.20 -0.21 0.06 -0.05 -0.12 -0.17 0.04 0.30 -0.03 0.08 0.05 -0.05 -0.13 -0.17 0.27 -0.09 0.22 0.25 -0.08 0.58 -0.09 0.08 0.08 0.05 0.28 0.27 -0.07 0.06 0.10
0.16 0.10 -0.20 0.25 -0.03 0.14 0.13 0.18 0.44 0.39 -0.27 -0.23 -0.02 -0.03 -0.07 -0.31 0.16 -0.06 0.25 -0.07 -0.28 0.38 -0.29 0.01 -0.13 -0.08 -0.55 -0.68 -0.26 -0.02 0.02 -0.29
-0.42 -0.05 -0.07 0.34 0.18 0.09 -0.28 0.09 0.02 -0.29 -0.07 -0.03 -0.23 0.34 -0.03 0.20 0.17 -0.31 0.17 -0.12 -0.14 -0.07 -0.48 0.04 -0.25 -0.38 0.17 0.05 0.16 0.03 -0.10 0.33
