-0.26 0.48 -0.15 -0.04 0.14 0.12 -0.09 -0.04 0.32 0.05 0.19 0.40 -0.14 0.05 -0.10 0.17 0.38 -0.12 0.13 0.17 0.13 0.11 0.13 -0.07 0.10 0.09 -0.38 -0.02 -0.36 0.07 -0.07 -0.10
0.40 -0.04 -0.33 -0.19 0.27 -0.29 0.17 -0.01 -0.34 0.12 0.32 -0.04 0.08 0.02 -0.25 0.29 -0.23 0.44 -0.19 0.13 -0.26 0.33 -0.02 -0.19 -0.39 -0.10 0.20 -0.27 0.14 0.39 0.26 -0.32
-0.34 -0.10 0.41 -0.12 -0.24 0.33 -0.05 -0.05 0.12 -0.24 -0.34 -0.02 -0.21 -0.16 0.09 -0.08 -0.03 -0.28 -0.11 0.03 0.10 -0.29 0.01 0.03 0.22 -0.14 -0.10 0.10 -0.07 -0.24 -0.06 0.13
-0.07 0.43 -0.40 0.06 0.15 -0.22 -0.14 0.02 0.18 0.11 0.30 0.15 -0.02 0.23 -0.00 0.32 0.39 0.01 0.37 0.06 0.18 0.13 0.17 0.03 0.05 0.34 -0.40 0.22 -0.23 0.12 -0.20 -0.06
0.11 -0.44 0.35 -0.15 -0.08 0.02 -0.09 -0.01 -0.19 0.13 -0.25 -0.06 0.15 0.01 0.31 -0.32 -0.27 0.09 -0.32 0.14 -0.19 -0.04 -0.04 -0.11 0.05 -0.28 0.25 -0.02 0.05 -0.12 0.34 0.21
0.30 -0.23 -0.37 0.10 0.32 -0.13 0.18 0.08 -0.20 -0.02 0.20 -0.07 0.27 -0.08 -0.31 0.08 -0.13 0.54 -0.12 0.09 -0.19 0.13 -0.01 -0.02 -0.12 -0.17 0.35 -0.14 0.31 0.28 0.08 -0.23
0.13 0.06 -0.42 0.00 0.26 -0.33 0.11 0.02 -0.29 -0.05 -0.01 -0.25 0.07 0.01 -0.30 0.03 -0.03 0.41 -0.03 0.00 -0.03 0.07 0.12 -0.28 -0.46 -0.12 0.24 -0.38 0.39 0.32 0.25 -0.27
-0.06 0.43 -0.39 -0.07 0.13 -0.05 -0.08 -0.18 0.14 -0.15 0.01 0.29 0.10 0.17 -0.37 0.39 0.43 -0.16 0.16 -0.08 0.15 0.21 -0.05 -0.03 0.10 0.21 -0.22 0.19 -0.22 0.13 -0.33 -0.25
0.17 -0.63 0.19 0.08 0.06 -0.03 0.01 0.21 -0.34 -0.01 -0.26 -0.34 0.16 -0.05 0.09 -0.18 -0.29 -0.06 -0.33 -0.21 -0.14 0.03 -0.09 -0.09 0.01 -0.23 0.24 -0.19 0.27 -0.04 0.11 0.31
-0.27 0.16 0.22 -0.06 -0.19 0.43 0.03 -0.00 0.35 -0.05 -0.08 0.30 -0.14 -0.03 0.32 -0.33 0.15 -0.49 0.09 0.06 0.08 -0.15 -0.16 0.14 0.46 -0.09 -0.28 0.42 -0.36 -0.25 -0.23 0.23
0.17 0.04 -0.40 0.03 0.15 -0.23 -0.07 0.03 -0.10 -0.00 0.13 -0.18 0.21 -0.13 -0.20 0.04 -0.18 0.45 -0.04 0.14 -0.02 0.32 0.05 -0.26 -0.40 -0.04 0.37 -0.40 0.21 0.34 0.03 -0.09
-0.40 0.23 0.28 0.01 -0.26 0.23 -0.08 -0.13 0.40 -0.11 -0.23 0.22 -0.16 -0.13 0.17 -0.07 0.20 -0.30 0.00 -0.10 0.08 -0.38 0.02 0.25 0.32 0.04 -0.43 0.22 -0.25 -0.31 -0.18 0.05
0.36 -0.28 -0.16 -0.04 0.13 -0.16 -0.03 0.19 -0.18 -0.11 0.24 -0.33 0.32 0.12 -0.37 0.11 -0.14 0.52 -0.00 -0.00 0.01 0.17 0.03 -0.18 -0.43 -0.02 0.19 -0.35 0.25 0.35 0.12 -0.14
-0.00 0.40 -0.21 0.18 -0.12 -0.01 0.06 0.03 0.31 -0.17 0.22 0.18 -0.10 0.25 -0.35 0.27 0.16 -0.10 0.16 0.17 0.16 0.20 0.13 0.08 0.10 0.36 -0.41 0.12 -0.03 -0.06 -0.36 -0.22
-0.07 -0.51 0.40 -0.12 0.15 0.18 -0.08 0.25 -0.35 0.04 -0.17 -0.30 0.16 -0.28 0.14 -0.11 -0.34 0.00 -0.06 0.07 -0.17 -0.03 0.11 -0.01 0.14 -0.46 0.28 -0.23 0.16 -0.08 0.26 0.33
-0.20 0.29 -0.34 0.11 -0.03 -0.03 -0.04 -0.18 0.33 -0.05 0.27 0.35 0.01 -0.02 -0.18 0.13 0.41 -0.06 0.27 0.08 0.21 0.13 -0.08 -0.08 -0.09 0.40 -0.37 -0.01 -0.23 0.16 -0.37 -0.15
